{"classifier":{"brain":{"sizes":[39,19,4],"layers":[{"0":{},"1":{},"2":{},"3":{},"4":{},"5":{},"6":{},"7":{},"8":{},"9":{},"10":{},"11":{},"12":{},"13":{},"14":{},"15":{},"16":{},"17":{},"18":{},"19":{},"20":{},"21":{},"22":{},"23":{},"24":{},"25":{},"26":{},"27":{},"28":{},"29":{},"30":{},"31":{},"32":{},"33":{},"34":{},"35":{},"36":{},"37":{},"38":{}},{"0":{"bias":-0.2069593220949173,"weights":{"0":-0.2303227037191391,"1":-0.2936609089374542,"2":-0.3097238540649414,"3":-0.024768095463514328,"4":0.01849065162241459,"5":-0.3981236517429352,"6":-0.38582175970077515,"7":-0.03901837393641472,"8":0.01962345838546753,"9":-0.19912153482437134,"10":0.1869475543498993,"11":-0.23131708800792694,"12":-0.12446663528680801,"13":-0.15141665935516357,"14":0.04478186368942261,"15":0.10413701832294464,"16":0.13312382996082306,"17":0.037195056676864624,"18":0.05488765984773636,"19":0.27128979563713074,"20":0.24100056290626526,"21":0.08102952688932419,"22":0.3165203332901001,"23":0.2800726592540741,"24":-0.060228168964385986,"25":0.3104737102985382,"26":0.0007831250550225377,"27":0.1674477905035019,"28":-0.045327719300985336,"29":0.3091672360897064,"30":0.2794775068759918,"31":0.2215331494808197,"32":0.30153071880340576,"33":0.2548465132713318,"34":-0.0034420841839164495,"35":-0.13451482355594635,"36":-0.134123757481575,"37":-0.12308568507432938,"38":0.24731865525245667}},"1":{"bias":-0.10621398687362671,"weights":{"0":-0.22782862186431885,"1":-0.01478687021881342,"2":-0.24732087552547455,"3":-0.19435849785804749,"4":-0.008652230724692345,"5":-0.21228590607643127,"6":-0.2747468650341034,"7":-0.11813855916261673,"8":-0.1654178947210312,"9":-0.23601798713207245,"10":0.2986653745174408,"11":-0.07450936734676361,"12":-0.1472868174314499,"13":-0.32297390699386597,"14":-0.1592024266719818,"15":0.012144064530730247,"16":-0.07551949471235275,"17":0.26133060455322266,"18":-0.031125908717513084,"19":0.2207699865102768,"20":0.18410101532936096,"21":0.04368536174297333,"22":0.27654510736465454,"23":0.2659599184989929,"24":0.14461973309516907,"25":0.13184195756912231,"26":-0.004818873945623636,"27":0.2356923371553421,"28":0.10457594692707062,"29":0.044464558362960815,"30":0.1341516375541687,"31":0.08320626616477966,"32":-0.08425045013427734,"33":0.20369628071784973,"34":0.27794313430786133,"35":0.003711744910106063,"36":0.3066341280937195,"37":0.002585001289844513,"38":0.022324899211525917}},"2":{"bias":-0.12695947289466858,"weights":{"0":0.2617323100566864,"1":0.48920878767967224,"2":0.28523439168930054,"3":0.3245120048522949,"4":0.24132291972637177,"5":0.19672879576683044,"6":0.31603744626045227,"7":-0.1873953640460968,"8":-0.29836615920066833,"9":0.008064213208854198,"10":-0.3459523916244507,"11":-0.06463443487882614,"12":0.07355573773384094,"13":-0.10998937487602234,"14":-0.16925400495529175,"15":-0.29756319522857666,"16":-0.011630162596702576,"17":-0.11394453048706055,"18":-0.18233230710029602,"19":-0.20243176817893982,"20":0.06304243952035904,"21":0.11816226691007614,"22":-0.16437023878097534,"23":0.11983553320169449,"24":0.12236884981393814,"25":0.021532686427235603,"26":0.07170479744672775,"27":0.03969729319214821,"28":-0.15063640475273132,"29":0.19546450674533844,"30":0.18773813545703888,"31":0.08389052748680115,"32":-0.0701422244310379,"33":-0.31634578108787537,"34":-0.1968930959701538,"35":-0.27023351192474365,"36":-0.1902199238538742,"37":-0.3611926734447479,"38":0.0035537960939109325}},"3":{"bias":0.1731511950492859,"weights":{"0":0.1727968007326126,"1":0.10326544940471649,"2":-0.07403934001922607,"3":0.14843353629112244,"4":-0.08812552690505981,"5":0.27038833498954773,"6":0.2211156189441681,"7":-0.4200279712677002,"8":-0.3081875741481781,"9":-0.22067591547966003,"10":-0.06970980763435364,"11":-0.15283560752868652,"12":-0.3481856882572174,"13":-0.12074488401412964,"14":-0.4002155065536499,"15":-0.16254064440727234,"16":-0.06004417687654495,"17":0.04535480961203575,"18":0.07015988230705261,"19":0.2653028666973114,"20":-0.14240334928035736,"21":-0.003914605360478163,"22":0.15617117285728455,"23":0.19602788984775543,"24":0.06881725043058395,"25":-0.006275809369981289,"26":0.18982988595962524,"27":-0.0011190621880814433,"28":0.014279027469456196,"29":0.22229984402656555,"30":-0.005686630494892597,"31":-0.07550638914108276,"32":0.03724247217178345,"33":0.29019108414649963,"34":0.35499322414398193,"35":0.1452547162771225,"36":0.13256318867206573,"37":0.17269758880138397,"38":0.19683796167373657}},"4":{"bias":0.1924596130847931,"weights":{"0":-0.1443808227777481,"1":0.0661238357424736,"2":0.10182604193687439,"3":0.06956445425748825,"4":-0.14168334007263184,"5":-0.14723323285579681,"6":-0.0894652009010315,"7":-0.014110992662608624,"8":0.03162967786192894,"9":0.1024976372718811,"10":0.33710429072380066,"11":0.12627102434635162,"12":0.29506585001945496,"13":-0.0879010483622551,"14":0.0006364444270730019,"15":0.2885226309299469,"16":-0.35922110080718994,"17":-0.38169923424720764,"18":-0.19101236760616302,"19":0.07469569146633148,"20":0.001810224144719541,"21":-0.00413735955953598,"22":-0.38588187098503113,"23":-0.3769015669822693,"24":-0.31077688932418823,"25":-0.07542745769023895,"26":-0.1004590094089508,"27":-0.34833768010139465,"28":-0.07828298956155777,"29":-0.2285223752260208,"30":-0.3321210741996765,"31":-0.24266652762889862,"32":-0.3098478317260742,"33":0.3670165538787842,"34":0.17374761402606964,"35":0.14763551950454712,"36":0.12549185752868652,"37":0.33241814374923706,"38":0.3565146028995514}},"5":{"bias":0.05326249450445175,"weights":{"0":-0.4575822949409485,"1":-0.28138235211372375,"2":-0.06239695101976395,"3":-0.4130237102508545,"4":0.10759533196687698,"5":-0.07904189825057983,"6":-0.45822298526763916,"7":0.33463940024375916,"8":0.42842897772789,"9":0.3720572590827942,"10":0.029177820309996605,"11":0.2771669328212738,"12":0.1429009884595871,"13":0.2660905718803406,"14":0.35841771960258484,"15":0.16796597838401794,"16":0.17205218970775604,"17":0.0583869069814682,"18":-0.03571263700723648,"19":0.0243588425219059,"20":0.1696823686361313,"21":0.08792556822299957,"22":0.2342553734779358,"23":0.2810191810131073,"24":0.03812890499830246,"25":0.2721325755119324,"26":0.09353314340114594,"27":0.10924819111824036,"28":0.17976577579975128,"29":-0.017723653465509415,"30":0.031443409621715546,"31":0.05686809867620468,"32":-0.009362376295030117,"33":-0.21602191030979156,"34":-0.06676275283098221,"35":-0.3434736430644989,"36":-0.23655939102172852,"37":-0.26864731311798096,"38":-0.35016924142837524}},"6":{"bias":0.08004815876483917,"weights":{"0":-0.0336795449256897,"1":0.326413094997406,"2":0.2769027054309845,"3":0.18899402022361755,"4":0.3323673903942108,"5":0.2626202702522278,"6":0.25031790137290955,"7":0.19917842745780945,"8":0.025335710495710373,"9":0.2710850238800049,"10":-0.22487522661685944,"11":0.2765040397644043,"12":0.06389357894659042,"13":0.2794097065925598,"14":0.12033120542764664,"15":0.38143572211265564,"16":-0.16076914966106415,"17":-0.230342298746109,"18":-0.2918471097946167,"19":-0.23896744847297668,"20":-0.1117171198129654,"21":-0.19789977371692657,"22":-0.19268202781677246,"23":-0.30523109436035156,"24":-0.02176670916378498,"25":-0.1097046360373497,"26":-0.19272665679454803,"27":-0.2971767783164978,"28":-0.15872424840927124,"29":-0.11471115797758102,"30":-0.1113799512386322,"31":0.05360238254070282,"32":-0.14027957618236542,"33":-0.27323296666145325,"34":-0.2282298356294632,"35":-0.19648507237434387,"36":-0.19875472784042358,"37":-0.2345765084028244,"38":-0.16362524032592773}},"7":{"bias":0.03289392590522766,"weights":{"0":-0.4502732455730438,"1":-0.3140369951725006,"2":-0.15452414751052856,"3":-0.22180378437042236,"4":0.0695141851902008,"5":-0.2752287685871124,"6":-0.49076998233795166,"7":0.1918562650680542,"8":0.08163003623485565,"9":0.2013700306415558,"10":0.277589350938797,"11":-0.03101261518895626,"12":0.2769814431667328,"13":0.21196147799491882,"14":-0.09394528716802597,"15":0.021571405231952667,"16":0.2192692905664444,"17":0.04532131925225258,"18":0.0073522659949958324,"19":0.15644840896129608,"20":0.22350548207759857,"21":0.057653263211250305,"22":-0.009451491758227348,"23":-0.09107805788516998,"24":0.1841335892677307,"25":0.26755037903785706,"26":0.2856405973434448,"27":0.2803622782230377,"28":-0.0968322604894638,"29":0.21448302268981934,"30":0.05833008512854576,"31":0.10730922967195511,"32":0.27687519788742065,"33":0.01772204041481018,"34":0.042313605546951294,"35":0.15141922235488892,"36":0.09302335232496262,"37":0.27441322803497314,"38":0.2414287030696869}},"8":{"bias":0.1364869922399521,"weights":{"0":0.040696706622838974,"1":0.29337525367736816,"2":0.05563110485672951,"3":0.12847450375556946,"4":-0.13847339153289795,"5":0.2815645933151245,"6":0.15451209247112274,"7":-0.42527228593826294,"8":-0.1176116093993187,"9":-0.3481474220752716,"10":-0.19813957810401917,"11":-0.2642691135406494,"12":-0.21873736381530762,"13":-0.23461955785751343,"14":-0.35498151183128357,"15":-0.3832175135612488,"16":-0.04422308877110481,"17":-0.0002015995851252228,"18":0.2004901021718979,"19":0.19081152975559235,"20":-0.0005758271436206996,"21":-0.16448253393173218,"22":0.08901424705982208,"23":-0.08163090795278549,"24":-0.15766383707523346,"25":-0.032712891697883606,"26":-0.16678176820278168,"27":-0.0014685515780001879,"28":0.17449882626533508,"29":0.1474885195493698,"30":-0.12042098492383957,"31":0.17015770077705383,"32":0.07013441622257233,"33":0.3422894775867462,"34":0.3763856291770935,"35":0.027545791119337082,"36":0.3400194048881531,"37":0.09757733345031738,"38":0.16758494079113007}},"9":{"bias":0.10724371671676636,"weights":{"0":-0.20662590861320496,"1":-0.21599406003952026,"2":-0.15398003160953522,"3":-0.17652076482772827,"4":-0.022343700751662254,"5":-0.005375858396291733,"6":0.13530898094177246,"7":-0.11264827847480774,"8":-0.0014188706409186125,"9":0.12457696348428726,"10":-0.009717682376503944,"11":-0.08493261784315109,"12":0.2243095189332962,"13":0.19165076315402985,"14":0.015556269325315952,"15":0.25840476155281067,"16":0.1021169126033783,"17":-0.28568580746650696,"18":-0.2728556990623474,"19":0.058167532086372375,"20":-0.19340713322162628,"21":-0.20046481490135193,"22":-0.264422744512558,"23":0.07147150486707687,"24":-0.11537828296422958,"25":-0.1740279197692871,"26":-0.2581094205379486,"27":-0.06454765796661377,"28":-0.02592531591653824,"29":-0.16161097586154938,"30":-0.17654195427894592,"31":-0.06818052381277084,"32":0.10022687911987305,"33":0.020597299560904503,"34":-0.0021703671663999557,"35":0.016954287886619568,"36":-0.04570355638861656,"37":-0.039205409586429596,"38":0.17474205791950226}},"10":{"bias":0.16264912486076355,"weights":{"0":0.36100491881370544,"1":0.19614385068416595,"2":0.3756340444087982,"3":0.14865495264530182,"4":0.47056201100349426,"5":0.190266951918602,"6":0.17824190855026245,"7":0.04522809758782387,"8":0.00031382805900648236,"9":0.17214468121528625,"10":-0.12739139795303345,"11":-0.014172609895467758,"12":0.16869579255580902,"13":0.35360851883888245,"14":0.17401330173015594,"15":-0.030426355078816414,"16":0.13414068520069122,"17":-0.10041587799787521,"18":-0.06530015170574188,"19":-0.24875175952911377,"20":-0.0457872673869133,"21":-0.18550725281238556,"22":0.11310326308012009,"23":-0.1974068284034729,"24":0.10080888867378235,"25":-0.023076068609952927,"26":-0.07260318100452423,"27":-0.04159216582775116,"28":0.13601717352867126,"29":0.013050965033471584,"30":-0.12317190319299698,"31":0.06409196555614471,"32":0.1613117754459381,"33":-0.4182851314544678,"34":-0.2807733118534088,"35":-0.17651431262493134,"36":-0.472461998462677,"37":-0.1306852251291275,"38":-0.38262635469436646}},"11":{"bias":0.07531077414751053,"weights":{"0":0.13058413565158844,"1":0.23540881276130676,"2":-0.010682972148060799,"3":0.3991840183734894,"4":0.19086751341819763,"5":0.14684028923511505,"6":0.24273718893527985,"7":0.11748506873846054,"8":0.051530539989471436,"9":-0.05903929844498634,"10":-0.38686421513557434,"11":-0.002153801964595914,"12":-0.1382979452610016,"13":-0.07909379154443741,"14":-0.04356307163834572,"15":-0.21687960624694824,"16":0.045529063791036606,"17":-0.15150858461856842,"18":-0.1851988285779953,"19":-0.3912898898124695,"20":-0.10460216552019119,"21":-0.21716377139091492,"22":0.03475426509976387,"23":-0.2786354720592499,"24":-0.12039744853973389,"25":0.059047043323516846,"26":-0.23955190181732178,"27":-0.121368408203125,"28":-0.059014271944761276,"29":-0.0019170927116647363,"30":-0.2576717436313629,"31":0.0480736643075943,"32":0.05793020874261856,"33":-0.059960462152957916,"34":-0.1429843306541443,"35":0.11950051039457321,"36":0.007348700892180204,"37":-0.1299196034669876,"38":-0.2769748866558075}},"12":{"bias":-0.13262096047401428,"weights":{"0":0.2976992726325989,"1":0.22282671928405762,"2":-0.052965592592954636,"3":-0.07947583496570587,"4":-0.12650196254253387,"5":0.2771008610725403,"6":0.15661175549030304,"7":-0.3372717797756195,"8":-0.40756887197494507,"9":-0.3136877715587616,"10":0.07107899338006973,"11":-0.21667474508285522,"12":-0.18197807669639587,"13":-0.062468286603689194,"14":-0.05663342773914337,"15":-0.2944944202899933,"16":0.12519603967666626,"17":-0.053580038249492645,"18":-0.16902326047420502,"19":0.34510618448257446,"20":-0.19845417141914368,"21":-0.1860891431570053,"22":0.029434798285365105,"23":-0.13594865798950195,"24":-0.15038609504699707,"25":-0.022446272894740105,"26":0.0018673802260309458,"27":-0.023187100887298584,"28":0.0961332768201828,"29":-0.18365173041820526,"30":-0.24955527484416962,"31":-0.20102475583553314,"32":-0.20526139438152313,"33":0.10232541710138321,"34":0.3621457517147064,"35":0.21414507925510406,"36":0.10449592769145966,"37":0.3204600512981415,"38":0.41413745284080505}},"13":{"bias":0.14853456616401672,"weights":{"0":-0.10189677774906158,"1":0.025653935968875885,"2":-0.1484990417957306,"3":0.09259162098169327,"4":-0.29423871636390686,"5":0.1489969938993454,"6":-0.11643202602863312,"7":-0.4330224394798279,"8":-0.35395994782447815,"9":-0.1753145009279251,"10":0.025134252384305,"11":-0.07911202311515808,"12":-0.136709064245224,"13":-0.3642534017562866,"14":-0.3929603695869446,"15":-0.13653917610645294,"16":-0.1665782779455185,"17":-0.3065880835056305,"18":-0.01782958209514618,"19":0.26634007692337036,"20":-0.03132689371705055,"21":-0.05144941806793213,"22":-0.0698375552892685,"23":-0.18117915093898773,"24":-0.22300533950328827,"25":-0.18193647265434265,"26":-0.2268020361661911,"27":0.03115658089518547,"28":-0.1030028760433197,"29":-0.25102901458740234,"30":0.033471375703811646,"31":-0.2676963210105896,"32":-0.3119138181209564,"33":0.3560694754123688,"34":0.4437353312969208,"35":0.2894028425216675,"36":0.16558131575584412,"37":0.2818358838558197,"38":0.26525866985321045}},"14":{"bias":0.10714753717184067,"weights":{"0":0.1931057870388031,"1":0.1791856437921524,"2":-0.06898537278175354,"3":-0.053902339190244675,"4":0.19933868944644928,"5":-0.03266957774758339,"6":0.1256149411201477,"7":0.035813719034194946,"8":0.03100533038377762,"9":-0.06115739792585373,"10":-0.0487278550863266,"11":-0.158869206905365,"12":-0.172080859541893,"13":0.08278091996908188,"14":0.03901742771267891,"15":0.0639941543340683,"16":0.2848953902721405,"17":0.15842172503471375,"18":0.13107368350028992,"19":-0.15494197607040405,"20":-0.0736440122127533,"21":0.08783822506666183,"22":0.26445746421813965,"23":0.032619908452034,"24":0.11896929889917374,"25":0.031118828803300858,"26":0.03190556913614273,"27":-0.02101856656372547,"28":-0.05155331641435623,"29":-0.0710676833987236,"30":0.11319312453269958,"31":0.2938941717147827,"32":-0.05524139851331711,"33":-0.07679335027933121,"34":-0.24745671451091766,"35":-0.10621174424886703,"36":-0.31956392526626587,"37":-0.0994303971529007,"38":0.044137049466371536}},"15":{"bias":0.0831359252333641,"weights":{"0":-0.2364308387041092,"1":-0.34720227122306824,"2":0.020009392872452736,"3":-0.3940744400024414,"4":-0.24520644545555115,"5":-0.11609430611133575,"6":-0.2839686870574951,"7":0.19810739159584045,"8":-0.0025407385546714067,"9":0.2980678975582123,"10":0.10105443000793457,"11":-0.013794678263366222,"12":0.01883768104016781,"13":0.21832914650440216,"14":0.09542617201805115,"15":0.3305175006389618,"16":-0.003767426358535886,"17":-0.18746520578861237,"18":-0.13435566425323486,"19":-0.009544848464429379,"20":-0.026082199066877365,"21":-0.0022765027824789286,"22":-0.22766351699829102,"23":-0.09600921720266342,"24":-0.021697284653782845,"25":-0.19636383652687073,"26":-0.23049262166023254,"27":0.07376404106616974,"28":0.07218123227357864,"29":-0.0217085350304842,"30":-0.09540794789791107,"31":-0.19253133237361908,"32":0.035276252776384354,"33":-0.03852991759777069,"34":0.2538270056247711,"35":0.1272984743118286,"36":0.046598076820373535,"37":-0.03751470148563385,"38":0.2222888022661209}},"16":{"bias":-0.09181205183267593,"weights":{"0":-0.4396129250526428,"1":-0.4088682234287262,"2":0.15321454405784607,"3":-0.321622371673584,"4":-0.2646004855632782,"5":-0.4724328815937042,"6":-0.4951350688934326,"7":0.45309823751449585,"8":0.18193860352039337,"9":0.45371556282043457,"10":0.4833727180957794,"11":0.4328385591506958,"12":0.09947608411312103,"13":0.379789263010025,"14":0.18965093791484833,"15":0.1845313161611557,"16":-0.3143058121204376,"17":-0.21505175530910492,"18":-0.04014264792203903,"19":0.18339955806732178,"20":0.01226245891302824,"21":-0.10723885893821716,"22":-0.3703365623950958,"23":-0.3467142879962921,"24":-0.3023918867111206,"25":0.010460433550179005,"26":-0.24396884441375732,"27":-0.11684445291757584,"28":-0.05310347303748131,"29":-0.2323077917098999,"30":-0.2628442943096161,"31":-0.196472629904747,"32":-0.2429283857345581,"33":0.2832529544830322,"34":0.24147765338420868,"35":0.19009853899478912,"36":0.3503377139568329,"37":0.026916049420833588,"38":0.04562870040535927}},"17":{"bias":-0.12544593214988708,"weights":{"0":-0.03585950285196304,"1":-0.08336950838565826,"2":-0.13488711416721344,"3":0.2664913237094879,"4":0.023428574204444885,"5":0.1438143104314804,"6":0.09374271333217621,"7":-0.2804323732852936,"8":0.018812336027622223,"9":-0.10548682510852814,"10":-0.11892858892679214,"11":-0.34571924805641174,"12":-0.17779333889484406,"13":-0.22497856616973877,"14":-0.16608786582946777,"15":-0.3384128212928772,"16":0.07029808312654495,"17":0.04060880094766617,"18":0.09744815528392792,"19":-0.10615137964487076,"20":0.34529873728752136,"21":0.3942936956882477,"22":0.11317505687475204,"23":0.32836541533470154,"24":0.16277684271335602,"25":0.10075807571411133,"26":0.22890925407409668,"27":0.33803310990333557,"28":0.3284589946269989,"29":0.4099857211112976,"30":0.11350413411855698,"31":0.1476379781961441,"32":0.09051498025655746,"33":-0.0547485314309597,"34":-0.38924282789230347,"35":-0.39999932050704956,"36":-0.06760144978761673,"37":-0.1799919307231903,"38":-0.07834353297948837}},"18":{"bias":0.04371930658817291,"weights":{"0":0.3303447961807251,"1":0.358117938041687,"2":0.27592986822128296,"3":0.12130388617515564,"4":0.16793671250343323,"5":0.18910597264766693,"6":0.33801889419555664,"7":-0.1689745932817459,"8":-0.14749206602573395,"9":0.14566537737846375,"10":-0.22900879383087158,"11":0.014949774369597435,"12":0.08596737682819366,"13":-0.025029093027114868,"14":0.06976155936717987,"15":0.1536654829978943,"16":0.05939660593867302,"17":-0.05837509036064148,"18":0.10131759196519852,"19":-0.3676222264766693,"20":-0.19174358248710632,"21":0.08214346319437027,"22":-0.2592657506465912,"23":-0.23754407465457916,"24":-0.15091803669929504,"25":-0.24429266154766083,"26":-0.23330770432949066,"27":-0.0698818787932396,"28":0.05064249783754349,"29":-0.18679992854595184,"30":-0.1154446005821228,"31":-0.2524738609790802,"32":-0.23596978187561035,"33":0.03692955523729324,"34":-0.25492966175079346,"35":-0.3462827205657959,"36":0.007474670652300119,"37":-0.17021015286445618,"38":-0.1685771942138672}}},{"Amor":{"bias":-0.06562964618206024,"weights":{"0":-0.9576680660247803,"1":-0.5470629930496216,"2":0.8515310287475586,"3":0.08425796777009964,"4":-0.16413547098636627,"5":-1.1084189414978027,"6":0.45253342390060425,"7":-1.2797415256500244,"8":0.3711319863796234,"9":-0.258207231760025,"10":0.5214908123016357,"11":0.6521416902542114,"12":0.14392027258872986,"13":0.10463161766529083,"14":0.07328212261199951,"15":-0.6786797046661377,"16":-1.3160688877105713,"17":0.010438187047839165,"18":0.8044800162315369}},"Deportes":{"bias":-0.0632806122303009,"weights":{"0":-0.5383449792861938,"1":-0.5310866832733154,"2":-0.46233677864074707,"3":-1.2801011800765991,"4":0.3707772195339203,"5":0.6862867474555969,"6":0.6514517664909363,"7":-0.05999460071325302,"8":-1.1857529878616333,"9":0.15921559929847717,"10":0.3353216052055359,"11":-0.11161743849515915,"12":-0.960233747959137,"13":-0.7995412945747375,"14":-0.20666195452213287,"15":0.407706081867218,"16":1.154832363128662,"17":-0.9117096662521362,"18":0.14894133806228638}},"Economia":{"bias":-0.04824552312493324,"weights":{"0":0.8037734627723694,"1":0.4949280619621277,"2":-0.18076348304748535,"3":-0.11594425141811371,"4":-1.3630675077438354,"5":0.4371825158596039,"6":-0.9294115900993347,"7":0.4123389720916748,"8":-0.05934653431177139,"9":-0.5571594834327698,"10":-0.20160537958145142,"11":-0.4670708179473877,"12":-0.5727419257164001,"13":-0.6339540481567383,"14":0.24951808154582977,"15":-0.370972603559494,"16":-0.9197889566421509,"17":1.061036229133606,"18":-0.6694150567054749}},"Filosofia":{"bias":-0.42131826281547546,"weights":{"0":-0.09455793350934982,"1":0.34213316440582275,"2":-0.947009801864624,"3":0.2859781086444855,"4":0.7422219514846802,"5":-0.958907961845398,"6":-0.8745107054710388,"7":0.002198731293901801,"8":0.5069280862808228,"9":0.059962984174489975,"10":-1.2860366106033325,"11":-0.3922025263309479,"12":0.6243674755096436,"13":1.133420705795288,"14":-0.5610472559928894,"15":0.2736452519893646,"16":0.5775945782661438,"17":-0.7472023367881775,"18":-0.5625942945480347}}}],"outputLookup":true,"inputLookup":false,"activation":"sigmoid","trainOpts":{"iterations":20000,"errorThresh":0.005,"log":false,"logPeriod":10,"learningRate":0.3,"momentum":0.1,"callbackPeriod":10,"beta1":0.9,"beta2":0.999,"epsilon":1e-8}},"data":[{"input":[1,1,1,1,1,1,1,0,0,0,0,0,0,0,0,0,0,0,0,0,0,0,0,0,0,0,0,0,0,0,0,0,0,0,0,0,0,0,0],"output":{"Amor":1}},{"input":[0,0,1,0,1,0,0,1,1,1,1,1,1,1,1,1,0,0,0,0,0,0,0,0,0,0,0,0,0,0,0,0,0,0,0,0,0,0,0],"output":{"Deportes":1}},{"input":[0,0,0,0,1,0,0,0,1,0,1,0,0,0,0,0,1,1,1,1,1,1,1,1,1,1,1,1,1,1,1,1,1,0,0,0,0,0,0],"output":{"Economia":1}},{"input":[0,0,0,0,0,0,0,0,0,0,1,0,0,0,0,0,0,0,0,1,0,0,0,0,0,0,0,0,0,0,0,0,0,1,1,1,1,1,1],"output":{"Filosofia":1}}]},"docs":[{"label":"Amor","text":["tu","er","el","amor","de","mi","vida"]},{"label":"Deportes","text":["el","futbol","es","uno","de","lo","deport","ma","practicado","del","mundo"]},{"label":"Economia","text":["la","economia","es","la","ciencia","que","estudia","lo","recurso","la","creaci","de","riqueza","la","producci","distribuci","consumo","de","bien","servicio","para","satisfac","la","necesidad","humana"]},{"label":"Filosofia","text":["lo","filosofo","hacen","que","nuestro","cebrero","se","confunda"]}],"features":{"tu":1,"er":1,"el":2,"amor":1,"de":4,"mi":1,"vida":1,"futbol":1,"es":2,"uno":1,"lo":3,"deport":1,"ma":1,"practicado":1,"del":1,"mundo":1,"la":5,"economia":1,"ciencia":1,"que":2,"estudia":1,"recurso":1,"creaci":1,"riqueza":1,"producci":1,"distribuci":1,"consumo":1,"bien":1,"servicio":1,"para":1,"satisfac":1,"necesidad":1,"humana":1,"filosofo":1,"hacen":1,"nuestro":1,"cebrero":1,"se":1,"confunda":1},"stemmer":{},"lastAdded":4,"events":{"domain":null,"_events":{},"_eventsCount":0}}